digraph Tree {
node [shape=box] ;
0 [label="b_name=SanTan Brewing Company <= 0.5\ngini = 0.7676\nsamples = 527\nvalue = [86, 78, 153, 158, 52]"] ;
1 [label="b_city=Gilbert <= 0.5\ngini = 0.7643\nsamples = 518\nvalue = [86, 69, 153, 158, 52]"] ;
0 -> 1 [labeldistance=2.5, labelangle=45, headlabel="True"] ;
2 [label="b_postal_code=85260 <= 0.5\ngini = 0.7668\nsamples = 506\nvalue = [86, 69, 141, 158, 52]"] ;
1 -> 2 ;
3 [label="b_postal_code=85032 <= 0.5\ngini = 0.7718\nsamples = 461\nvalue = [77, 69, 136, 130, 49]"] ;
2 -> 3 ;
4 [label="b_name=Cornish Pasty Company <= 0.5\ngini = 0.7667\nsamples = 451\nvalue = [75, 69, 136, 130, 41]"] ;
3 -> 4 ;
5 [label="b_address=4216 N Brown Ave <= 0.5\ngini = 0.7626\nsamples = 445\nvalue = [75, 69, 136, 130, 35]"] ;
4 -> 5 ;
6 [label="(...)"] ;
5 -> 6 ;
211 [label="(...)"] ;
5 -> 211 ;
212 [label="gini = 0.0\nsamples = 6\nvalue = [0, 0, 0, 0, 6]"] ;
4 -> 212 ;
213 [label="b_stars <= 3.25\ngini = 0.32\nsamples = 10\nvalue = [2, 0, 0, 0, 8]"] ;
3 -> 213 ;
214 [label="gini = 0.0\nsamples = 2\nvalue = [2, 0, 0, 0, 0]"] ;
213 -> 214 ;
215 [label="gini = 0.0\nsamples = 8\nvalue = [0, 0, 0, 0, 8]"] ;
213 -> 215 ;
216 [label="b_address=9301 E Shea Blvd <= 0.5\ngini = 0.556\nsamples = 45\nvalue = [9, 0, 5, 28, 3]"] ;
2 -> 216 ;
217 [label="b_address=7366 E. Shea Blvd. <= 0.5\ngini = 0.4537\nsamples = 40\nvalue = [9, 0, 0, 28, 3]"] ;
216 -> 217 ;
218 [label="b_review_count <= 30.5\ngini = 0.3688\nsamples = 36\nvalue = [5, 0, 0, 28, 3]"] ;
217 -> 218 ;
219 [label="(...)"] ;
218 -> 219 ;
224 [label="(...)"] ;
218 -> 224 ;
227 [label="gini = 0.0\nsamples = 4\nvalue = [4, 0, 0, 0, 0]"] ;
217 -> 227 ;
228 [label="gini = 0.0\nsamples = 5\nvalue = [0, 0, 5, 0, 0]"] ;
216 -> 228 ;
229 [label="gini = 0.0\nsamples = 12\nvalue = [0, 0, 12, 0, 0]"] ;
1 -> 229 ;
230 [label="gini = 0.0\nsamples = 9\nvalue = [0, 9, 0, 0, 0]"] ;
0 -> 230 [labeldistance=2.5, labelangle=-45, headlabel="False"] ;
}