digraph Tree {
node [shape=box, style="filled, rounded", color="black", fontname=helvetica] ;
edge [fontname=helvetica] ;
0 [label=<b_name=Cornish Pasty Company &le; 0.5<br/>gini = 0.7705<br/>samples = 527<br/>value = [105, 72, 160, 139, 51]<br/>class = 3>, fillcolor="#39e5c50e"] ;
1 [label=<b_review_count &le; 936.0<br/>gini = 0.7662<br/>samples = 519<br/>value = [105, 72, 160, 139, 43]<br/>class = 3>, fillcolor="#39e5c50e"] ;
0 -> 1 [labeldistance=2.5, labelangle=45, headlabel="True"] ;
2 [label=<b_address=4216 N Brown Ave &le; 0.5<br/>gini = 0.7614<br/>samples = 500<br/>value = [105, 58, 157, 137, 43]<br/>class = 3>, fillcolor="#39e5c50e"] ;
1 -> 2 ;
3 [label=<b_name=Whole Foods Market &le; 0.5<br/>gini = 0.7571<br/>samples = 492<br/>value = [105, 50, 157, 137, 43]<br/>class = 3>, fillcolor="#39e5c50e"] ;
2 -> 3 ;
4 [label=<b_name=L & J Motor Vehicle Services &le; 0.5<br/>gini = 0.7561<br/>samples = 485<br/>value = [98, 50, 157, 137, 43]<br/>class = 3>, fillcolor="#39e5c50f"] ;
3 -> 4 ;
5 [label=<b_review_count &le; 95.5<br/>gini = 0.7572<br/>samples = 477<br/>value = [98, 50, 157, 129, 43]<br/>class = 3>, fillcolor="#39e5c515"] ;
4 -> 5 ;
6 [label=<b_name=Bowl of Greens &le; 0.5<br/>gini = 0.721<br/>samples = 181<br/>value = [42, 17, 77, 31, 14]<br/>class = 3>, fillcolor="#39e5c540"] ;
5 -> 6 ;
7 [label=<b_name=C & R Tire &le; 0.5<br/>gini = 0.7169<br/>samples = 175<br/>value = [36, 17, 77, 31, 14]<br/>class = 3>, fillcolor="#39e5c54b"] ;
6 -> 7 ;
8 [label=<b_review_count &le; 61.5<br/>gini = 0.7067<br/>samples = 171<br/>value = [36, 17, 77, 31, 10]<br/>class = 3>, fillcolor="#39e5c54d"] ;
7 -> 8 ;
9 [label=<b_review_count &le; 41.5<br/>gini = 0.7335<br/>samples = 108<br/>value = [28, 13, 39, 25, 3]<br/>class = 3>, fillcolor="#39e5c523"] ;
8 -> 9 ;
10 [label=<gini = 0.7067<br/>samples = 85<br/>value = [22, 13, 36, 13, 1]<br/>class = 3>, fillcolor="#39e5c539"] ;
9 -> 10 ;
11 [label=<gini = 0.6352<br/>samples = 23<br/>value = [6, 0, 3, 12, 2]<br/>class = 4>, fillcolor="#3c39e55a"] ;
9 -> 11 ;
12 [label=<gini = 0.5946<br/>samples = 63<br/>value = [8, 4, 38, 6, 7]<br/>class = 3>, fillcolor="#39e5c58b"] ;
8 -> 12 ;
13 [label=<gini = 0.0<br/>samples = 4<br/>value = [0, 0, 0, 0, 4]<br/>class = 5>, fillcolor="#e539c0ff"] ;
7 -> 13 ;
14 [label=<gini = 0.0<br/>samples = 6<br/>value = [6, 0, 0, 0, 0]<br/>class = 1>, fillcolor="#e58139ff"] ;
6 -> 14 ;
15 [label=<b_address=699 S Mill Ave, Ste 117 &le; 0.5<br/>gini = 0.7595<br/>samples = 296<br/>value = [56, 33, 80, 98, 29]<br/>class = 4>, fillcolor="#3c39e515"] ;
5 -> 15 ;
16 [label=<b_name=Stand Up Scottsdale Comedy Club &le; 0.5<br/>gini = 0.7543<br/>samples = 291<br/>value = [56, 33, 80, 98, 24]<br/>class = 4>, fillcolor="#3c39e516"] ;
15 -> 16 ;
17 [label=<b_review_count &le; 106.0<br/>gini = 0.7517<br/>samples = 285<br/>value = [50, 33, 80, 98, 24]<br/>class = 4>, fillcolor="#3c39e516"] ;
16 -> 17 ;
18 [label=<gini = 0.6578<br/>samples = 23<br/>value = [0, 8, 0, 9, 6]<br/>class = 4>, fillcolor="#3c39e511"] ;
17 -> 18 ;
19 [label=<b_address=1435 E University Dr, Ste 12 &le; 0.5<br/>gini = 0.7411<br/>samples = 262<br/>value = [50, 25, 80, 89, 18]<br/>class = 4>, fillcolor="#3c39e50d"] ;
17 -> 19 ;
20 [label=<b_address=17025 N Scottsdale Rd, Ste 190 &le; 0.5<br/>gini = 0.7358<br/>samples = 258<br/>value = [50, 21, 80, 89, 18]<br/>class = 4>, fillcolor="#3c39e50d"] ;
19 -> 20 ;
21 [label=<b_name=Majerle's Sports Grill &le; 0.5<br/>gini = 0.7334<br/>samples = 254<br/>value = [46, 21, 80, 89, 18]<br/>class = 4>, fillcolor="#3c39e50d"] ;
20 -> 21 ;
22 [label=<b_address=15230 N Scottsdale Rd &le; 0.5<br/>gini = 0.7304<br/>samples = 250<br/>value = [42, 21, 80, 89, 18]<br/>class = 4>, fillcolor="#3c39e50d"] ;
21 -> 22 ;
23 [label=<b_address=5959 N Granite Reef Rd &le; 0.5<br/>gini = 0.7268<br/>samples = 246<br/>value = [38, 21, 80, 89, 18]<br/>class = 4>, fillcolor="#3c39e50e"] ;
22 -> 23 ;
24 [label=<b_address=7366 E. Shea Blvd. &le; 0.5<br/>gini = 0.7227<br/>samples = 242<br/>value = [34, 21, 80, 89, 18]<br/>class = 4>, fillcolor="#3c39e50e"] ;
23 -> 24 ;
25 [label=<b_address=610 E Roosevelt St, Ste 145 &le; 0.5<br/>gini = 0.7178<br/>samples = 238<br/>value = [30, 21, 80, 89, 18]<br/>class = 4>, fillcolor="#3c39e50f"] ;
24 -> 25 ;
26 [label=<b_review_count &le; 496.5<br/>gini = 0.7121<br/>samples = 234<br/>value = [26, 21, 80, 89, 18]<br/>class = 4>, fillcolor="#3c39e50f"] ;
25 -> 26 ;
27 [label=<b_review_count &le; 377.0<br/>gini = 0.703<br/>samples = 204<br/>value = [20, 18, 78, 73, 15]<br/>class = 3>, fillcolor="#39e5c50a"] ;
26 -> 27 ;
28 [label=<b_review_count &le; 143.5<br/>gini = 0.7301<br/>samples = 169<br/>value = [20, 18, 54, 62, 15]<br/>class = 4>, fillcolor="#3c39e512"] ;
27 -> 28 ;
29 [label=<gini = 0.6918<br/>samples = 48<br/>value = [7, 4, 23, 10, 4]<br/>class = 3>, fillcolor="#39e5c557"] ;
28 -> 29 ;
30 [label=<b_review_count &le; 220.5<br/>gini = 0.7165<br/>samples = 121<br/>value = [13, 14, 31, 52, 11]<br/>class = 4>, fillcolor="#3c39e53c"] ;
28 -> 30 ;
31 [label=<gini = 0.6477<br/>samples = 84<br/>value = [12, 3, 19, 44, 6]<br/>class = 4>, fillcolor="#3c39e562"] ;
30 -> 31 ;
32 [label=<gini = 0.7407<br/>samples = 37<br/>value = [1, 11, 12, 8, 5]<br/>class = 3>, fillcolor="#39e5c50a"] ;
30 -> 32 ;
33 [label=<gini = 0.431<br/>samples = 35<br/>value = [0, 0, 24, 11, 0]<br/>class = 3>, fillcolor="#39e5c58a"] ;
27 -> 33 ;
34 [label=<gini = 0.6511<br/>samples = 30<br/>value = [6, 3, 2, 16, 3]<br/>class = 4>, fillcolor="#3c39e56a"] ;
26 -> 34 ;
35 [label=<gini = 0.0<br/>samples = 4<br/>value = [4, 0, 0, 0, 0]<br/>class = 1>, fillcolor="#e58139ff"] ;
25 -> 35 ;
36 [label=<gini = 0.0<br/>samples = 4<br/>value = [4, 0, 0, 0, 0]<br/>class = 1>, fillcolor="#e58139ff"] ;
24 -> 36 ;
37 [label=<gini = 0.0<br/>samples = 4<br/>value = [4, 0, 0, 0, 0]<br/>class = 1>, fillcolor="#e58139ff"] ;
23 -> 37 ;
38 [label=<gini = 0.0<br/>samples = 4<br/>value = [4, 0, 0, 0, 0]<br/>class = 1>, fillcolor="#e58139ff"] ;
22 -> 38 ;
39 [label=<gini = 0.0<br/>samples = 4<br/>value = [4, 0, 0, 0, 0]<br/>class = 1>, fillcolor="#e58139ff"] ;
21 -> 39 ;
40 [label=<gini = 0.0<br/>samples = 4<br/>value = [4, 0, 0, 0, 0]<br/>class = 1>, fillcolor="#e58139ff"] ;
20 -> 40 ;
41 [label=<gini = 0.0<br/>samples = 4<br/>value = [0, 4, 0, 0, 0]<br/>class = 2>, fillcolor="#7be539ff"] ;
19 -> 41 ;
42 [label=<gini = 0.0<br/>samples = 6<br/>value = [6, 0, 0, 0, 0]<br/>class = 1>, fillcolor="#e58139ff"] ;
16 -> 42 ;
43 [label=<gini = 0.0<br/>samples = 5<br/>value = [0, 0, 0, 0, 5]<br/>class = 5>, fillcolor="#e539c0ff"] ;
15 -> 43 ;
44 [label=<gini = 0.0<br/>samples = 8<br/>value = [0, 0, 0, 8, 0]<br/>class = 4>, fillcolor="#3c39e5ff"] ;
4 -> 44 ;
45 [label=<gini = 0.0<br/>samples = 7<br/>value = [7, 0, 0, 0, 0]<br/>class = 1>, fillcolor="#e58139ff"] ;
3 -> 45 ;
46 [label=<gini = 0.0<br/>samples = 8<br/>value = [0, 8, 0, 0, 0]<br/>class = 2>, fillcolor="#7be539ff"] ;
2 -> 46 ;
47 [label=<gini = 0.4211<br/>samples = 19<br/>value = [0, 14, 3, 2, 0]<br/>class = 2>, fillcolor="#7be539af"] ;
1 -> 47 ;
48 [label=<gini = 0.0<br/>samples = 8<br/>value = [0, 0, 0, 0, 8]<br/>class = 5>, fillcolor="#e539c0ff"] ;
0 -> 48 [labeldistance=2.5, labelangle=-45, headlabel="False"] ;
}